const float TGruHarNet::InputDenseKernel[6][16] PROGMEM = 
{{0.26030728f,-0.22000936f,0.46059525f,0.65036684f,0.28050911f,-0.32302129f,0.13761944f,-0.11216968f,-0.02357174f,0.61518306f,-0.01026640f,0.03331127f,0.38486320f,0.09771744f,0.07838985f,0.35097995f},
{-0.09386781f,0.43374273f,-0.24396145f,-0.26539034f,-0.47980097f,0.09364162f,0.38757503f,0.94307387f,-0.18336222f,-0.25607574f,0.03049383f,-0.14017081f,-0.31196910f,-0.15409563f,-0.01859594f,0.55577528f},
{0.00062286f,1.69206762f,0.62923801f,-0.87487936f,-0.86641955f,-0.12597644f,-0.97892976f,1.80959761f,1.89207351f,-0.69771737f,1.60982144f,1.57022321f,0.42093763f,-2.38589501f,-0.01680355f,-0.29722720f},
{-0.58303171f,0.78700209f,0.53661633f,0.62034547f,0.39464507f,0.44047967f,-0.83101773f,0.44571805f,0.25309753f,0.78493339f,-1.00136673f,-2.52432394f,-1.96452534f,1.47742808f,1.82345283f,0.68997324f},
{1.65291464f,0.03701548f,-0.06257258f,0.61483973f,-1.24812961f,0.22928521f,-0.27355817f,-0.44387835f,-0.25020698f,-0.01325246f,-0.24631189f,-1.15397227f,-0.42989576f,-0.33783504f,-1.18941307f,0.48607883f},
{-1.66066492f,0.23867051f,0.94678634f,0.63081616f,0.67417264f,1.39149702f,-0.79383582f,0.06622011f,0.12530768f,0.51897091f,-1.32867289f,0.06296302f,1.06975508f,0.12883502f,2.65589142f,1.30511308f}};
const float TGruHarNet::InputDenseBias[16] PROGMEM = 
{-0.09731931f,0.16915618f,-0.09060281f,0.03343629f,0.14399298f,0.07367249f,0.07758661f,0.23310226f,0.03559749f,-0.04457331f,0.31198519f,0.02996558f,-0.05128496f,-0.02342411f,0.07093517f,-0.12744048f};
const float TGruHarNet::GruCellGatesKernel[32][32] PROGMEM = 
{{-0.00575047f,-0.35137844f,-0.14938228f,0.09593251f,0.02834916f,0.18348917f,0.04823712f,0.18831836f,-0.26376680f,-0.80921870f,-0.08950547f,0.03122582f,0.13925755f,-0.12009187f,0.02487581f,0.30325675f,-0.26015431f,-0.35092711f,-0.11936648f,0.08883325f,-0.22052914f,-0.36233461f,0.31033042f,-0.01645785f,0.31720442f,0.02160763f,0.81313163f,-0.40533128f,0.20757233f,0.79897720f,-0.12982064f,0.04582494f},
{-0.20369378f,0.61756396f,-0.67348051f,-0.24782166f,0.01516482f,-0.69221509f,-0.75563121f,-0.09995558f,-0.03564673f,-0.11631209f,-0.62910551f,-0.21266295f,-1.58091640f,0.23064342f,-0.12522368f,0.05381108f,-0.16169152f,-0.88360697f,-0.66356969f,-0.12593682f,-0.27134046f,-1.73526096f,0.28657693f,-1.36006737f,0.02072424f,0.64178747f,0.32028565f,1.72619116f,1.37825501f,-1.20002162f,0.29528028f,0.33672398f},
{-0.00527582f,-0.39849150f,0.02721132f,0.30154195f,-0.26311323f,-0.19363461f,-0.14984058f,0.28475621f,0.35561654f,0.30072784f,-0.02037368f,-0.06275526f,-0.03904285f,0.07970380f,-0.05709970f,0.03525821f,-0.10798464f,-0.56487936f,-0.35237855f,0.13428666f,-0.14630815f,-0.20210242f,-0.10857622f,0.00135470f,-0.03810866f,0.57379240f,-0.21827722f,0.58247608f,-0.43354371f,-0.22547044f,0.33940917f,-0.03994305f},
{-0.17896657f,0.16100612f,-0.09490612f,0.21860711f,0.29701659f,0.21959710f,0.24339533f,0.26163158f,0.18302841f,0.23287381f,0.26602906f,-0.26361784f,0.31384099f,0.01334518f,0.28513035f,-0.00523834f,0.01661874f,-0.31333610f,-0.07803746f,0.25078115f,0.15768841f,-0.19789357f,0.13839659f,-0.07654631f,-0.22506960f,0.16281268f,-0.17843622f,0.14802900f,-0.07883313f,0.48848280f,0.11938636f,0.46292597f},
{-0.30040401f,0.63077009f,0.74075365f,-0.20079716f,0.06194296f,0.16275579f,-0.44165978f,-0.19141102f,-0.17809889f,0.07099462f,-0.50696152f,0.05406502f,-0.16705611f,-0.21666254f,0.24329685f,0.12904622f,-0.16729248f,-0.14114732f,-0.29173687f,-0.29982343f,-0.14779904f,0.07744025f,-0.06688602f,-0.06292699f,0.27368048f,-0.09202256f,-0.58372808f,1.55845034f,-0.53630316f,-0.74190271f,-0.27522469f,0.11255539f},
{0.16731739f,-0.91141450f,-0.40368912f,-0.01739711f,-0.12496836f,0.87310994f,0.28920308f,-0.40274557f,0.16601768f,-0.41647735f,-0.22505590f,-0.49822387f,0.33482999f,-1.13963854f,-0.06177044f,0.44103307f,0.23522386f,0.74688572f,-1.46485603f,0.10631189f,-0.14777444f,-3.11431050f,-1.29641378f,-2.57898998f,0.01215347f,-0.27676162f,-0.42607865f,-1.12835240f,1.01354742f,1.91094422f,0.04212096f,0.54794848f},
{-0.17534228f,0.36043397f,-0.39485589f,-0.34916750f,0.06403691f,-0.14423522f,-0.68608201f,-0.86005688f,-0.32890591f,-0.62782073f,0.21289624f,-0.59038430f,0.19190951f,0.16700105f,-0.08321111f,-0.05529262f,0.03128681f,0.57671916f,0.83258539f,-0.33425331f,0.28305975f,1.08412123f,0.15749876f,0.41160390f,-0.15869650f,0.12744480f,0.41370773f,-0.36606571f,0.81957072f,0.76978898f,-0.11961515f,0.51408982f},
{0.15657766f,0.76230520f,-0.39518717f,0.01133571f,-0.10074425f,-0.09080515f,-0.42903432f,-0.39161146f,-0.09427608f,-0.16011862f,-1.00178945f,0.17688170f,-0.94674170f,-0.21236265f,-0.09055745f,-0.16826227f,-0.23296991f,-0.54543930f,0.05353035f,0.21165495f,0.22851434f,-0.59429187f,1.04542780f,-1.41814506f,-0.06821565f,1.01400077f,-0.22013535f,2.08875942f,0.76119530f,-1.33356607f,0.13516955f,0.67251456f},
{-0.15185781f,-0.38953882f,0.36707577f,-0.24161015f,-0.08322756f,-0.17185163f,-0.32161644f,0.34310257f,-0.24715194f,0.69728374f,-0.20856422f,-0.09447539f,-0.79875314f,0.68339264f,-0.24862131f,-0.19837855f,0.15852489f,-0.16012390f,-0.43353257f,-0.44363400f,0.27082399f,-0.74378538f,0.20594807f,-0.80621105f,0.03509773f,0.30983341f,0.58656794f,-1.78695965f,0.00637611f,0.80586267f,0.31976187f,-0.06000929f},
{-0.25446993f,-0.24659771f,0.17555249f,0.14674217f,0.06512192f,-0.01120847f,-0.15581822f,0.45026973f,-0.16092327f,-0.21645467f,0.08764444f,0.16913125f,-0.18527770f,0.12727180f,0.13047315f,-0.10144851f,-0.22945642f,-0.39196262f,0.15056501f,0.30210647f,0.01553544f,-0.09422521f,0.04583928f,-0.25348473f,0.19316888f,0.44621918f,-0.07016839f,0.73960227f,-0.68338847f,-0.07041282f,-0.24738437f,0.20802090f},
{-0.23172206f,-0.39243671f,-0.07504641f,-0.28932187f,-0.25073594f,-0.14204846f,-0.27407205f,-0.56953561f,-0.20126072f,-0.83837998f,-0.25582373f,0.13590598f,-0.21099661f,-0.48983091f,0.00234686f,-0.13010593f,0.19613126f,0.17506944f,0.45951161f,0.12841615f,-0.01381978f,-0.03358326f,0.75749671f,-0.06982703f,0.11146942f,-0.31174681f,0.31144512f,-1.15090418f,0.36389360f,-0.11259123f,-0.22129822f,-0.86342561f},
{-0.12730028f,-0.07109656f,-0.58297658f,0.03889875f,0.30240938f,-0.48283052f,-0.11334204f,-0.29822853f,-0.21532445f,-0.93916535f,0.48270234f,-0.31035465f,-0.12743746f,-0.18006004f,0.07809654f,-0.53311282f,-0.08806919f,1.23838186f,1.05612862f,-0.14209060f,0.03301972f,1.11547494f,-0.92982608f,0.45852676f,-0.10358781f,-0.47798195f,1.39355803f,-1.11956811f,1.06244099f,0.08727861f,0.14909849f,0.11559746f},
{0.05290318f,0.26496914f,-0.66483974f,-0.12096755f,-0.17147763f,-0.22130771f,-0.11147180f,-1.15391612f,0.25989485f,-1.20785892f,0.82757938f,0.14499304f,0.43731716f,0.07050238f,0.16528644f,-0.32029364f,-0.09406922f,1.40312898f,0.57860541f,-0.69453067f,-0.30519268f,1.23239827f,-1.58304811f,0.33058396f,-0.08834069f,-0.08596044f,1.37750947f,-0.64819551f,0.81907564f,0.55119079f,0.33458021f,-0.11429478f},
{-0.13933988f,0.21374732f,0.64523286f,-0.41874421f,0.08176872f,0.12969801f,-0.28263062f,0.62334299f,0.04904320f,0.44853446f,0.15389797f,-0.13404639f,-0.41606030f,0.34055182f,0.13372737f,0.23112361f,0.16697842f,-0.86259913f,0.57369214f,-0.04044556f,-0.01882631f,0.33813652f,0.43034378f,0.23752408f,0.22864597f,-0.36823693f,-0.02099273f,2.14632845f,-1.68007898f,0.30828628f,-0.20540534f,0.60455197f},
{-0.28435537f,-0.31311798f,-0.31037766f,-0.06033928f,-0.17631844f,0.36625820f,-0.32332358f,0.26950055f,-0.04654520f,0.47766840f,0.07063949f,-0.07586421f,0.04861012f,-0.20577705f,-0.16127762f,0.36477336f,-0.21270056f,-0.01014881f,0.12989242f,0.53424096f,-0.08341378f,-0.18179545f,-0.14376837f,-0.56296909f,0.37952349f,0.10232409f,-0.58529532f,1.64036131f,0.50000757f,-0.23138893f,-0.03316270f,0.14841299f},
{0.15135287f,-0.41403973f,-0.19635074f,-0.08597472f,0.13456288f,0.19756809f,-0.03549708f,0.25400457f,-0.02868260f,-0.04041503f,0.25118750f,-0.18484136f,-0.07781883f,0.28580314f,0.20145082f,-0.06160608f,0.15468071f,-0.11309110f,0.39581797f,-0.13841739f,-0.07716502f,-0.23356988f,-0.30089629f,-0.31932008f,0.09175998f,0.51386005f,-0.57222968f,0.94844621f,-1.19174874f,0.16314644f,0.16941585f,0.60409981f},
{-0.29481852f,0.09271587f,0.16467392f,0.10323051f,-0.24329180f,-0.27252215f,0.12309184f,-0.21467139f,-0.14106263f,-0.22415408f,-0.19905412f,0.27116445f,0.22260395f,-0.23862346f,-0.13548759f,0.22849908f,0.22562601f,-0.07081302f,-0.17668320f,-0.16583993f,-0.29868528f,-0.13986056f,-0.23915929f,-0.08652770f,0.16427249f,-0.16970524f,-0.21203753f,-0.20278759f,-0.20464629f,0.05120678f,-0.17446531f,-0.17768759f},
{0.08858252f,0.10289008f,-0.46650010f,-0.00240541f,-0.02400118f,0.08559400f,0.27683672f,0.28689581f,0.26745847f,-0.00737009f,0.25048181f,-0.44942367f,0.15586279f,0.59470671f,0.33230832f,-0.34349006f,0.13104770f,0.22733764f,-0.06899893f,-0.18263982f,-0.11941959f,0.20575823f,0.32917592f,0.16523957f,-0.03062562f,0.10455323f,0.80778199f,-0.00432441f,-0.23238619f,0.40917978f,0.11764467f,0.16466430f},
{0.28446051f,-0.07554170f,0.12603395f,-0.04820345f,-0.22716510f,0.41394055f,0.46629545f,-0.00926280f,0.32223514f,0.16590314f,0.22058752f,0.09276839f,-0.50393981f,0.32257602f,0.32975116f,0.10039531f,-0.13377877f,-0.20354187f,-0.06744950f,0.58353364f,0.10543314f,0.34775293f,-0.54412901f,-0.09021989f,0.07165405f,0.04092481f,0.01666342f,-0.28856057f,0.18628030f,-0.32875681f,0.09659735f,0.12766382f},
{-0.14198704f,-0.38104042f,0.80408347f,-0.09402347f,0.29310653f,0.19495739f,0.33101633f,-0.00726365f,0.20879786f,0.17107055f,0.25718367f,-0.00428516f,0.25756171f,0.57482040f,0.18875474f,-0.06334380f,0.26266971f,-0.12962063f,-0.39921075f,0.17173220f,-0.09518270f,0.08680397f,0.13548182f,-0.37151438f,-0.20909123f,-0.65750825f,-0.55222797f,-0.19858965f,-0.82587951f,-1.09018135f,0.16812429f,-0.10240180f},
{-0.23395216f,-0.22825864f,0.09893018f,-0.02281055f,0.23723158f,-0.05309027f,-0.13761708f,0.06484619f,-0.23368508f,0.22266909f,-0.00190181f,0.27751860f,-0.04720700f,0.27976194f,-0.10326977f,0.16475946f,0.26339272f,0.23367885f,-0.12623842f,-0.30332088f,0.07059088f,0.28840867f,0.14062691f,-0.03545254f,0.12374443f,0.12229005f,0.18572441f,-0.14420582f,0.25179896f,-0.03812903f,0.17803964f,0.22605142f},
{-0.01257823f,0.28608111f,0.10052257f,-0.03768650f,0.22696605f,-0.02320708f,0.83087420f,-0.12759946f,-0.15582576f,-0.36979952f,0.46558779f,0.14543562f,-0.18663591f,-0.49452457f,0.22540586f,0.12402900f,-0.30632624f,0.13843760f,-0.11207079f,0.96144658f,-0.26234388f,0.20145145f,-0.26410326f,0.00364130f,0.30801278f,-0.18262228f,-0.04001701f,0.13962901f,0.51886797f,-0.04994839f,-0.17624769f,-0.05805825f},
{0.29630572f,-0.11861037f,0.44573298f,-0.21348402f,-0.11562817f,0.21620391f,0.17277035f,0.16863461f,0.02632979f,-0.00311435f,-0.46053225f,-0.17277524f,0.13387415f,0.24890442f,0.42836145f,0.08606221f,-0.27450758f,0.21461554f,0.13555610f,0.45235026f,-0.08923966f,0.22292295f,0.37960324f,0.29766327f,0.27502206f,0.25504327f,0.22829020f,0.48684329f,-0.29696515f,0.06295902f,0.02156975f,-0.19174202f},
{0.18272027f,-0.04384543f,0.09195373f,0.22314319f,0.10446143f,0.29495686f,-0.20949373f,0.03728980f,0.15449481f,0.39542416f,0.22201425f,-0.25145203f,-0.17601101f,0.09076031f,0.12388702f,-0.08995124f,0.23356716f,-0.24129122f,0.05731671f,-0.10346507f,0.09828210f,0.42936134f,-0.11912885f,-0.06150721f,0.28076017f,0.34811816f,-0.39116162f,-0.06205884f,-0.23929928f,0.17422350f,0.02760986f,0.42878559f},
{-0.29398784f,0.45719865f,-0.16140632f,-0.17364378f,-0.21811152f,0.09591378f,0.20757431f,0.25859243f,0.02901596f,0.05931159f,0.08352217f,-0.23640697f,-0.22884226f,0.06558283f,0.17534477f,-0.33891526f,-0.04014063f,-0.13453819f,-0.21268113f,0.18113369f,-0.21484745f,0.24383603f,0.02286885f,-0.11471096f,-0.10390157f,0.05496688f,0.05342661f,-0.09676073f,0.11906148f,0.08092847f,0.08057114f,0.27650091f},
{-0.04311782f,0.01972294f,-0.68438458f,-0.23201326f,-0.27815461f,-0.45583868f,-0.37770474f,-0.27910271f,0.09290843f,-0.50836974f,0.22961049f,0.44213578f,-0.10951138f,0.04876157f,-0.01251980f,-0.16228311f,0.13559382f,-0.27741748f,0.21778321f,0.32031193f,0.15120378f,-0.25123802f,0.31789449f,0.43520555f,-0.10566829f,0.03440991f,-0.04960626f,0.03708810f,0.15878277f,-0.01593127f,0.15818502f,-0.19228932f},
{-0.26949817f,-0.11517817f,-0.63928443f,-0.21357261f,-0.12314810f,0.21279123f,-0.12505673f,0.75796205f,-0.73617405f,0.31664172f,0.13911185f,-0.42633301f,-0.19764185f,0.10986545f,-0.02627744f,-0.35543403f,0.22942305f,-0.07810343f,0.73102945f,0.07197785f,-0.05242741f,-0.19194238f,0.47583589f,0.06597863f,-0.00259319f,-0.27469519f,-0.01522569f,-0.30778849f,0.37753808f,-0.40259823f,0.16448931f,0.07953764f},
{-0.30408072f,0.29354787f,-0.01336872f,0.32763711f,-0.00432324f,0.41695303f,0.38571805f,0.82841033f,-0.05211668f,0.31840298f,0.10173745f,-0.43107039f,0.63118231f,-0.28659177f,0.37150386f,-0.33661425f,0.14006093f,-0.10821473f,-0.38298753f,0.07459495f,-0.29947194f,0.06954870f,0.04403473f,0.02909466f,0.39949855f,0.02596024f,-0.13920535f,0.68347281f,-0.19685444f,-0.35330921f,-0.07901569f,-0.03912255f},
{0.05639988f,-0.14792521f,0.25303617f,-0.20707794f,0.23257485f,0.62436754f,0.18299757f,0.77135384f,-0.25374028f,-0.31637609f,0.34879616f,0.06865511f,0.37051037f,0.00105893f,0.26682207f,-0.36537603f,0.03311446f,-0.49923494f,-0.11112644f,0.06341796f,-0.15659049f,-0.22113961f,-0.14896990f,-0.45502576f,0.51058930f,0.65405327f,0.22061905f,-0.51644474f,-0.26776817f,0.37061757f,0.00357913f,-0.21571968f},
{-0.27312231f,0.00752330f,-0.06399089f,-0.01216671f,-0.03207460f,0.36646968f,-0.07570939f,0.43024233f,-0.22239649f,0.23327377f,-0.17666441f,0.20412119f,0.02566427f,0.78676832f,-0.19630852f,-0.07043241f,-0.30112723f,0.13434471f,0.33223367f,0.22774795f,-0.15997210f,-0.28593749f,0.46786010f,0.14667147f,0.37210575f,0.07805161f,0.26356685f,0.50154245f,-0.20983137f,-0.06716244f,0.10918137f,0.19167972f},
{0.26671210f,-0.23507442f,0.04182508f,-0.21283261f,-0.23824176f,-0.32732356f,-0.06030727f,-0.29130960f,0.27681687f,0.11028131f,0.17983766f,0.52319872f,-0.35832363f,0.01026501f,0.05776818f,0.37914667f,-0.10435426f,0.32679072f,-0.26667026f,0.06817198f,0.10640669f,-0.10366571f,-0.52189368f,-0.09116331f,0.13294394f,-0.16701253f,0.20560628f,-0.26813978f,0.17859080f,0.20552972f,0.00814966f,-0.14862984f},
{-0.05051751f,0.30674133f,-0.08320100f,0.12991120f,0.20287654f,-0.13821898f,0.11826428f,-0.44677430f,0.26004952f,0.19383100f,-0.11077713f,0.37226671f,-0.29610318f,-0.34468263f,-0.03199231f,0.23134963f,0.10600168f,0.07616837f,-0.03014615f,0.02228445f,0.21451071f,-0.34681013f,0.52066141f,0.08579571f,0.12434246f,0.16185476f,0.20973736f,0.18060744f,-0.02154421f,-0.00881778f,-0.06543215f,0.11800577f}};
const float TGruHarNet::GruCellGatesBias[32] PROGMEM = 
{1.00431991f,1.12457335f,0.97338057f,0.91102707f,1.00000000f,0.91485620f,0.97182906f,0.87278652f,1.04388571f,0.82400894f,0.81909835f,1.11652374f,0.99581909f,0.92716950f,1.20274889f,1.18092382f,1.00110006f,1.18848956f,0.90998763f,1.12898946f,1.00000000f,1.00051928f,1.50063848f,0.99812633f,1.02395844f,1.16496992f,1.24214363f,1.53704751f,1.23613226f,0.85243934f,0.89069653f,1.12802541f};
const float TGruHarNet::GruCellCandidateKernel[32][16] PROGMEM = 
{{-0.18096116f,-0.05787718f,0.36588004f,0.06978392f,-0.32147869f,0.63913894f,-0.36237153f,0.23144747f,0.36149260f,0.02175775f,0.02689842f,0.04667111f,0.72524595f,-0.06145664f,0.03498044f,0.56533241f},
{-0.31745088f,0.86087865f,-0.13684762f,-0.18424836f,-0.01709569f,-0.22524521f,-0.01926410f,0.30851391f,0.13879867f,-0.46850193f,0.17091191f,0.52240020f,-0.68502057f,0.47198179f,-0.27703136f,-0.36532792f},
{0.32938296f,0.04545191f,-0.12731273f,-0.17060308f,-0.10000822f,0.16319251f,0.22788550f,0.26381266f,-0.09004859f,-0.12791216f,-0.08583283f,0.22585130f,0.34672683f,-0.24683225f,0.02854418f,0.18572140f},
{0.09655739f,0.44729063f,0.30747494f,0.06671592f,-0.33784938f,0.30124527f,0.23709686f,0.23627041f,0.17350006f,0.46500924f,-0.38524628f,0.00502175f,0.13915074f,-0.14902797f,-0.14254753f,0.35203519f},
{-0.29883125f,-0.18903807f,0.00299225f,0.19845408f,-0.11704399f,-0.00179733f,-0.16452529f,0.59855944f,0.22312219f,0.35348657f,-0.01068921f,0.52467746f,0.08396779f,-0.37593749f,-0.02789673f,0.52068096f},
{-0.13722205f,0.33627200f,1.50091791f,-0.26499805f,0.17605707f,1.46617079f,0.92970186f,1.34038043f,0.09003916f,-0.32889867f,-0.02749700f,0.33860403f,0.01942666f,0.07196828f,0.26240027f,-1.27269614f},
{-0.29611206f,0.31780529f,-1.26133990f,-0.00493038f,-0.22712497f,-0.40311256f,-0.14560768f,-0.72165859f,0.39266381f,0.40744418f,-0.17941712f,-0.27098367f,0.56014019f,0.14288141f,0.34286726f,0.11977439f},
{-0.23657827f,-0.37161157f,0.39651388f,-0.02072343f,-0.07331866f,-0.27380028f,0.07765584f,0.18012376f,0.48820719f,-0.06329839f,0.25826585f,0.41427341f,-0.45400915f,-0.17204478f,-0.60285246f,-0.52638710f},
{0.23053582f,0.67395794f,-0.08542786f,0.42471153f,-0.13027675f,-0.69719172f,0.10470676f,-0.32142738f,0.16747172f,0.07970120f,0.52961034f,0.79155779f,-0.19481400f,0.15796120f,-0.09354575f,-0.40395612f},
{-0.19477341f,0.26145297f,0.33547533f,-0.24155918f,0.12528124f,0.19235966f,0.08722754f,0.41364807f,-0.01084682f,0.02290858f,0.13624005f,0.25614035f,-0.09292816f,0.06861205f,-0.01800287f,0.45996478f},
{-0.12116613f,-0.06646808f,0.25495601f,-0.01891832f,0.27639231f,0.17268384f,0.06183528f,0.29952526f,0.32960355f,0.16580647f,0.57126379f,0.15840718f,0.08244535f,-0.70851064f,0.00480821f,-0.18981624f},
{-0.03992270f,0.59883904f,-0.49834114f,-0.04715125f,-0.33012539f,-0.45919976f,0.81134266f,0.12485210f,-0.12725088f,0.35780048f,-0.07102428f,-0.09772597f,0.49550185f,0.30463368f,-0.24230938f,-0.19204170f},
{-0.00078839f,0.55546552f,-0.74830544f,-0.01080445f,0.19880381f,-0.11409465f,-0.08271496f,-0.58901042f,-0.09572972f,-0.08147208f,-0.19293068f,0.08852059f,0.87704992f,-0.31569034f,-0.32155252f,0.27103430f},
{-0.26473990f,0.23558556f,-0.35863057f,-0.14320479f,0.05881095f,-0.66689473f,0.57421470f,0.17451487f,-0.48909777f,0.10875268f,0.28948557f,-0.99558681f,-0.72753084f,0.21288233f,-0.10669869f,-0.43149909f},
{-0.33544111f,-0.16173662f,0.51412439f,-0.43774951f,-0.21475850f,-0.06141885f,0.33637133f,0.24890903f,-0.14388405f,0.47249684f,-0.23546053f,0.37736967f,-0.15992731f,-0.09577642f,-0.41390809f,0.23399962f},
{-0.25192013f,0.13243900f,-0.23199572f,0.29592133f,-0.02271807f,0.41526175f,0.15339112f,0.27655604f,0.01774864f,-0.07899997f,-0.02223865f,-0.19498137f,0.18912001f,0.18011051f,-0.38183966f,-0.07592853f},
{-0.24732295f,-0.20241378f,-0.08230138f,0.07478897f,0.17942974f,-0.02187448f,0.13332337f,0.02399230f,-0.01641273f,-0.03149989f,-0.05353557f,-0.32443175f,-0.34659624f,-0.27557063f,-0.32245141f,-0.11359341f},
{-0.15519910f,0.27764705f,-0.63438702f,-0.35483932f,-0.24731180f,-0.21191132f,-0.06440376f,-0.19621819f,-0.33073857f,-0.06979611f,0.04738293f,0.43460992f,0.14701819f,0.63429987f,-0.43330085f,0.21652184f},
{-0.18009755f,-0.29156008f,0.27450180f,-0.58799905f,-0.21890651f,0.44557157f,0.39246571f,0.49766168f,0.00915676f,-1.19226205f,0.28668371f,-1.48489261f,0.23590119f,-0.19272643f,0.12826830f,0.17768240f},
{-0.09268437f,-0.41355506f,1.19343400f,-0.03453746f,0.28569904f,-0.08432543f,0.12339141f,0.28222880f,0.03270394f,0.01307972f,0.07443833f,0.29132023f,0.42715243f,0.19365619f,-0.09003326f,-0.12151200f},
{-0.03648248f,-0.02484202f,-0.33693886f,0.13581535f,0.26644877f,-0.31505206f,0.21826151f,0.22634271f,-0.19200452f,-0.23827703f,0.02782089f,-0.19457985f,-0.16973218f,-0.21877459f,0.03978088f,0.06126720f},
{0.27171251f,0.06520819f,0.15212564f,-0.55390823f,-0.05610916f,0.26751092f,-0.35367313f,0.64289105f,-0.33490813f,-0.45770118f,0.38512081f,-0.42353234f,-0.16986524f,-0.09040269f,-0.23035774f,0.55130160f},
{-0.25731146f,0.34175888f,-0.41579297f,-0.06960926f,-0.06821755f,0.27715835f,0.42572668f,0.26018643f,-0.30281046f,-0.18757331f,0.23904863f,0.50275391f,0.09151986f,0.41085979f,-0.16832842f,0.23367918f},
{-0.22377452f,0.30234143f,0.36420006f,0.18765658f,-0.08235729f,0.00825610f,-0.14737883f,0.39862493f,-0.20566268f,-0.20924139f,0.25248933f,-0.69271582f,0.21211641f,-0.02179402f,0.30272126f,0.33410028f},
{-0.21791944f,0.54162854f,-0.28673807f,0.19333318f,0.03922448f,-0.37444130f,0.31826586f,-0.15396532f,0.32044527f,0.25939131f,0.16844124f,0.14523266f,-0.22346555f,-0.05440932f,-0.10195423f,-0.20989501f},
{0.20569932f,-0.30330971f,-0.35044754f,-0.09095159f,-0.28446114f,-0.36190724f,-0.56572646f,-0.21065848f,-0.20888259f,0.53258669f,-0.50011569f,0.44676173f,0.03449958f,-0.20507783f,0.24511516f,0.34883687f},
{-0.18096517f,0.41114306f,-1.51952696f,0.36312789f,-0.20053850f,-0.56954145f,-0.18353260f,-0.15082657f,0.25541085f,-0.10680980f,0.16473752f,0.61537087f,0.65531301f,0.17167819f,-0.34736067f,0.06717617f},
{-0.09246770f,-0.36553922f,0.11956517f,-0.20559601f,-0.03179795f,0.11589812f,0.16781346f,-0.25945193f,-0.22344053f,-0.08415443f,-0.05147503f,0.39090288f,-0.07764031f,-0.62724084f,0.31543207f,-0.04025391f},
{-0.28033084f,0.02640369f,0.02970361f,0.32257187f,-0.18740301f,0.53598905f,0.04686717f,0.09724087f,-0.24938816f,0.09762044f,0.44734007f,0.64507842f,0.35350516f,0.33003861f,-0.50422436f,-0.23549844f},
{-0.04503649f,-0.13416694f,0.05527953f,0.14376311f,0.04918182f,-0.59416360f,0.35612735f,-0.48994905f,0.04370817f,-0.02723596f,0.22237253f,0.10034315f,0.14178868f,0.71127683f,0.22446042f,0.49656686f},
{-0.13774757f,-0.28174686f,0.00825412f,-0.08438004f,0.14834586f,0.09888240f,-0.29711837f,-0.41567588f,0.24934380f,-0.28885975f,-0.20197186f,-0.03758844f,0.07591772f,-0.46243119f,0.17348710f,0.53441447f},
{-0.03760966f,-0.22531994f,0.43338135f,-0.09188209f,-0.16880766f,0.17975135f,-0.07698657f,-0.01853386f,-0.31872287f,-0.37630972f,-0.39824295f,-0.09876256f,-0.48936430f,0.35629973f,-0.05398098f,0.21490361f}};
const float TGruHarNet::GruCellCandidateBias[16] PROGMEM = 
{-0.00671049f,-0.01958038f,0.00167004f,-0.09820580f,0.00000000f,-0.01726611f,-0.01036852f,0.06724555f,0.18142262f,0.18095212f,-0.11959587f,0.19732435f,0.06306347f,0.05723393f,-0.07202604f,0.26084775f};
const float TGruHarNet::OutputDenseKernel[16][12] PROGMEM = 
{{-0.38724285f,0.00906636f,0.00388637f,-0.30920902f,-0.20486663f,0.23935987f,0.12137154f,-0.28581205f,-0.44193101f,0.40268552f,-0.38038936f,0.39909109f},
{0.38525525f,-0.20494337f,0.11771668f,-0.86693281f,0.43935072f,-0.02320386f,-0.02810590f,0.02269012f,1.14852071f,0.25031158f,0.04751658f,-0.80101472f},
{0.07396596f,0.19677562f,-0.20793281f,-0.12810591f,0.28084862f,-0.23748071f,-0.29480454f,-0.33259928f,0.09923251f,-0.38126415f,-0.06866021f,0.51624447f},
{-0.16116631f,-0.50841826f,-0.34242082f,0.46721548f,-0.23318496f,-1.05059397f,0.37139195f,0.93434995f,-0.16109006f,0.43550009f,0.17995778f,0.96740592f},
{-0.15360415f,0.03271756f,0.00516847f,-0.13522130f,-0.33332571f,0.16996825f,0.18438822f,0.42648995f,0.00670695f,-0.32550550f,-0.40741676f,-0.34174392f},
{0.12609094f,0.20492722f,-0.11891995f,0.16653265f,0.22892037f,-0.22820206f,0.32452628f,-0.06653712f,-0.21485424f,0.47759506f,0.12323071f,0.53027081f},
{-0.64828062f,0.01336679f,-0.07559644f,-0.35757542f,-0.22593482f,-0.56953561f,-0.61411583f,-0.06421893f,0.37155193f,0.30913973f,0.34255400f,-0.07482789f},
{-0.13750386f,-0.10173573f,0.19489276f,0.26233631f,0.01991353f,-0.24868833f,0.23323044f,0.17607689f,-0.08735911f,0.13164337f,-0.39445126f,0.53747356f},
{0.40293780f,0.03194744f,0.14247553f,-0.44471487f,0.30356282f,0.53935671f,-0.40218112f,-0.56744534f,-0.29811102f,-0.13256328f,-0.49231696f,0.16730911f},
{-0.31761703f,-0.20104122f,0.30133191f,-0.12875782f,0.34833813f,-0.08856542f,-0.17891537f,0.29460841f,-0.04714953f,-0.13280298f,0.46082655f,-0.46043456f},
{0.25911835f,-0.46066695f,-0.32132322f,-0.02223710f,-0.04406227f,-0.18453357f,-0.00798821f,-0.13551305f,0.81103200f,0.09685375f,0.52568430f,0.12864028f},
{0.08299220f,0.05427666f,-0.55569512f,-0.68139625f,0.16220561f,0.46578443f,0.11187092f,0.45081899f,0.47289693f,0.25167277f,0.54391247f,-0.37261373f},
{0.01214361f,-0.04082373f,0.13646916f,-0.29011631f,0.11946560f,-0.21442981f,0.11202627f,0.10983267f,0.53538978f,0.24515174f,-0.16114570f,-0.08928568f},
{-0.34778541f,-0.25414422f,-0.00744884f,-0.25567961f,-0.46309683f,-0.20711619f,0.01642187f,-0.53857255f,1.07266510f,0.12418800f,-0.00241668f,-0.46124232f},
{-0.16236523f,-0.08071860f,0.18823121f,0.15975545f,-0.01153683f,-0.28494576f,-0.06407952f,0.21482772f,-0.30078280f,-0.52516603f,-0.64709586f,-0.49791750f},
{-0.20838973f,0.41360798f,-0.04013271f,-0.18715686f,-0.38961598f,0.41620833f,0.08007476f,-0.05851874f,-0.31882492f,-0.30063385f,0.00997020f,-0.11610422f}};
const float TGruHarNet::OutputDenseBias[12] PROGMEM = 
{0.27795908f,0.35352859f,0.19223164f,0.11402067f,0.11170067f,0.21583433f,-0.15104569f,-0.04869021f,0.14271274f,0.01214586f,-0.10088307f,-0.31128779f};
const float TGruHarNet::ToClassesDenseKernel[12][6] PROGMEM = 
{{0.01505946f,0.37983173f,-0.20466767f,0.37148964f,0.24831966f,0.01145594f},
{0.48951712f,0.25946262f,-1.10957515f,0.12609634f,0.26214197f,0.47389254f},
{0.40638372f,-0.05957883f,-0.43600035f,-0.05006452f,0.21276166f,0.34075478f},
{-0.06571306f,-0.30741903f,-0.30284089f,0.28280818f,0.32692584f,0.25724182f},
{-0.96885741f,0.24539341f,-0.00332717f,-0.08228856f,-0.06646828f,-0.22858819f},
{-0.18392737f,0.69906878f,-0.33260676f,0.13230523f,-0.03543644f,0.04934090f},
{-0.00123860f,0.03672954f,0.11807590f,0.61966038f,-0.02525427f,0.38177067f},
{-0.69070011f,0.12237606f,0.37304226f,-0.02921437f,0.10226873f,-0.42292082f},
{0.25018656f,0.39136851f,0.40044734f,-0.35197225f,-0.11372988f,-0.09680840f},
{0.16119254f,0.21276648f,0.57354450f,-0.13290031f,0.10133167f,-0.28173158f},
{-0.40987113f,0.17192237f,0.43339452f,-0.25810993f,-0.21106662f,0.25429752f},
{-0.68383360f,-0.49069214f,-0.02659074f,0.28896061f,0.47556624f,0.25385040f}};
const float TGruHarNet::ToClassesDenseBias[6] PROGMEM = 
{0.25391859f,0.48440734f,-0.56829280f,-0.04311765f,0.11573099f,-0.01335913f};
