const float TGruHarNet::InputDenseKernel[6][16] PROGMEM = 
{{-0.18090791f,0.83217365f,-0.17788728f,-0.17082646f,-0.08841282f,0.31549087f,-0.15676373f,0.10704889f,-0.29476303f,-0.26162997f,-0.32208237f,0.56642419f,-0.24292836f,0.65244418f,0.31034085f,0.17793298f},
{-0.08285771f,-0.47236767f,-0.14482658f,-0.61210662f,-0.20115246f,-0.27410275f,0.01359800f,-0.88261300f,0.34448561f,0.66829830f,0.97909087f,0.75798023f,-0.47240350f,0.75415474f,-1.34406829f,0.13094054f},
{-0.14824970f,1.07046545f,-1.18064082f,-0.77840745f,-0.39363474f,1.27823138f,-0.51414913f,-0.42950520f,0.91150874f,-0.49594992f,0.92916936f,1.12130952f,1.56862557f,2.72457862f,1.27073371f,0.68405592f},
{1.06527948f,-0.16638397f,0.67155892f,-1.52042842f,-0.12000336f,-1.94817126f,1.33473074f,0.56243384f,1.19586647f,-1.43737364f,0.76557654f,0.69013512f,1.13617909f,0.06805658f,-0.34968221f,-0.68717611f},
{-0.02040187f,0.32034582f,-0.03928508f,-0.25826684f,0.07322405f,1.23850667f,1.27072406f,2.11614490f,-0.11947121f,0.04512758f,-0.05571532f,-0.59991854f,-0.03893489f,-0.64341545f,-0.20440896f,-1.89419329f},
{0.53022832f,-1.44610250f,1.03221285f,0.29087904f,0.05571564f,-0.02107745f,1.21878862f,-3.47542286f,-0.20383605f,-1.35250676f,0.02777795f,-2.61498094f,0.21055533f,-2.71193528f,-0.50473815f,-2.55949926f}};
const float TGruHarNet::InputDenseBias[16] PROGMEM = 
{0.18444547f,-0.02472643f,0.21262033f,0.26027769f,-0.15698689f,-0.11621247f,0.15582941f,0.01708255f,0.18905298f,0.25451517f,0.20091653f,0.03417308f,0.08950464f,-0.23977253f,-0.10324927f,-0.01868953f};
const float TGruHarNet::GruCellGatesKernel[32][32] PROGMEM = 
{{0.19483088f,0.25146788f,-0.40009591f,0.13036697f,-0.23481908f,-0.11366107f,-0.47956854f,0.07816875f,1.68624544f,-0.21917701f,0.03692274f,0.68478280f,-0.07871608f,0.21575120f,0.45326227f,0.13514562f,-0.50827277f,-0.46479008f,-0.10859617f,0.12739421f,0.66266596f,-0.26146117f,-0.61298889f,-1.69661605f,-0.49459124f,-0.13197137f,-0.71570379f,-0.07942288f,-0.44442827f,-0.90030158f,0.38682076f,0.03794781f},
{-0.05927227f,0.19469371f,0.24892424f,-0.00556865f,-0.11040118f,0.07729778f,-0.24709350f,-0.24835761f,0.19561347f,0.13795887f,0.29203033f,-0.04219208f,-0.35208556f,-0.21868007f,0.02948822f,-0.22166832f,-0.20454951f,-0.37540799f,0.01623099f,-0.00518971f,0.19368313f,-0.06544112f,-0.21665414f,0.13362703f,0.30415389f,0.21717429f,-0.21435231f,-0.18721119f,0.00886909f,-0.06909792f,0.24519143f,-0.28490722f},
{0.14222646f,0.30328646f,-0.27440149f,-0.17616519f,0.02517198f,-0.27331698f,-0.34489551f,0.33058965f,0.20035149f,0.20206919f,0.07583992f,0.19461828f,-0.07094357f,0.54072684f,0.39018130f,-0.12528610f,-0.16499053f,-0.96548355f,-0.07655013f,0.05905581f,0.98924470f,0.20471059f,0.26499754f,-1.36657655f,-0.23669757f,0.01728624f,-0.93500733f,0.56662345f,-1.00902355f,-0.64371425f,0.37265646f,-0.14584467f},
{1.28086400f,-0.53074634f,0.45053363f,-0.63796824f,-0.20210296f,0.05384402f,-1.65801728f,0.03055574f,0.00282288f,0.11932975f,-0.06738807f,0.50883442f,0.23268975f,0.02795934f,0.35098398f,-0.03425666f,-0.76985550f,-0.95423299f,-2.49683332f,-0.48146170f,-0.79100502f,0.00597890f,0.94021034f,0.76985431f,-0.44570792f,0.16305897f,-0.35356751f,0.60899347f,0.92358196f,1.23059833f,-0.06055554f,-0.12980889f},
{-0.08437724f,0.03548271f,-0.09385777f,0.08111889f,-0.21802960f,-0.20861855f,0.11691964f,0.03391548f,-0.05607484f,-0.03543046f,0.02848588f,-0.21927172f,0.02742638f,-0.19659477f,0.13235804f,0.00506186f,-0.23291405f,0.00249748f,-0.01911219f,-0.15049411f,-0.25046089f,-0.12148845f,-0.03064330f,-0.28863874f,-0.03900987f,0.10346265f,-0.20669761f,0.28754613f,-0.11248416f,0.12338246f,-0.02213540f,-0.29173434f},
{0.58233392f,0.13109218f,0.33648759f,-0.02852503f,0.01476568f,0.01789865f,-0.27839527f,0.08853196f,0.25600302f,-0.07828509f,-0.56138265f,-0.14610000f,0.43398890f,-0.49463528f,0.32842553f,-0.06883068f,0.55402291f,0.19251007f,-0.82534736f,0.01454900f,-0.12263095f,-0.05187586f,0.74852955f,1.01565742f,0.49933228f,0.27075860f,0.04645079f,-0.01790487f,1.34611261f,1.02674973f,0.48835722f,-0.20886572f},
{0.59353274f,0.81026667f,-0.41702425f,0.25894439f,-0.52010387f,-0.01881890f,-0.79280823f,0.30723894f,1.75793791f,-0.13499001f,0.06181903f,1.33042645f,-0.07281700f,0.76652724f,0.62308061f,0.27754983f,-0.10533748f,-0.51060617f,-0.32730028f,0.54335427f,1.14187133f,-0.05181754f,0.17919677f,-1.55133951f,0.06894326f,-0.05011520f,-0.58082432f,-0.43723330f,-0.73345065f,-0.72943431f,0.44755301f,-0.08419374f},
{0.15707785f,0.22241201f,-0.09227484f,0.29083943f,-0.47117302f,0.10249618f,-0.13727495f,0.08447233f,0.08717503f,-0.27392536f,-0.13745029f,1.00298786f,-0.16637865f,0.35122302f,0.57242852f,0.14115892f,0.44284379f,-0.80620658f,-0.08896184f,0.43522617f,0.90206885f,0.29792899f,-0.57173592f,0.07109646f,1.43193293f,-0.43131739f,0.19882131f,0.04586598f,-0.36573780f,-0.72284442f,-0.12753677f,-0.29345176f},
{-0.11094688f,1.01687586f,-0.17730075f,0.13675126f,-0.35928965f,0.13077860f,-0.85570830f,-0.09821692f,0.80852735f,-1.19655776f,-0.79240400f,0.02069238f,0.50346750f,-0.46437308f,0.40746337f,0.04623494f,-0.46503541f,-0.25283736f,-0.27578223f,0.58684063f,-0.19501935f,0.11718757f,-1.13256657f,-0.93043846f,-0.04430261f,-0.23998562f,-0.31033790f,0.90487409f,0.70717597f,-0.63247389f,0.58990324f,-0.19720617f},
{1.03494632f,-0.58622926f,0.09878087f,-0.54780525f,-0.05475709f,-0.11836828f,-0.13770586f,-0.03456650f,0.57215387f,-0.29105353f,-0.26132584f,0.24827489f,0.20910576f,0.19095330f,0.47871804f,-0.25176603f,0.36683649f,-0.47449148f,-2.75342441f,-0.33145753f,-0.50190055f,0.29501337f,0.55355352f,0.93177336f,0.21010658f,0.69380885f,-0.62822276f,-0.05020756f,-0.04734978f,0.86176747f,0.10423905f,0.19317159f},
{-0.33038473f,0.21834403f,-0.52655959f,0.33125454f,-0.81824088f,-0.08924537f,-1.32947898f,-0.38899589f,-0.25699049f,-1.70096791f,-1.74502921f,0.26297483f,0.56699580f,-0.66508174f,1.03813112f,-0.24989957f,-0.56549174f,0.08084443f,-0.76018208f,-0.15713555f,0.41461435f,-0.09743899f,-0.02424558f,-0.91624933f,0.41379091f,-0.24026650f,-0.64402622f,0.83792818f,1.41569746f,-0.71984655f,0.32818010f,-0.18067582f},
{0.22717419f,0.05851854f,0.39096171f,0.17833199f,0.08944354f,-0.24619906f,-0.07430182f,0.00775052f,0.25782156f,-0.08186265f,-0.00157877f,0.01378309f,-0.32638168f,0.22024298f,0.33313301f,-0.11292051f,0.17760657f,0.69455838f,0.39654353f,0.14925773f,0.03573940f,0.01029598f,-0.57629871f,0.11472837f,0.40199056f,-0.23468977f,0.37201619f,-0.21661381f,-0.44794047f,-0.20634057f,-0.24537691f,0.26124331f},
{-0.27138647f,0.52322781f,-0.48481494f,-0.42388254f,-0.02588331f,0.21184514f,-0.04918011f,0.30939224f,1.04818022f,-1.01860571f,0.46101251f,0.80465156f,0.28346005f,0.46270549f,-0.13470858f,-0.00369849f,-0.59101307f,-0.23005833f,-0.55891329f,0.08774576f,-0.44210070f,0.01014727f,-0.56183612f,-0.51966774f,-0.21257241f,-0.06213984f,0.03976356f,0.47103363f,0.46098340f,-0.92174619f,0.43925974f,-0.29313892f},
{0.00636106f,0.45627788f,0.13839146f,-0.06163996f,-0.13810709f,-0.26662380f,-0.21287334f,-0.27659073f,-0.06521956f,-0.14121123f,-0.00395476f,0.16218983f,0.13236733f,0.07658721f,0.22994740f,-0.29870087f,0.35074002f,0.50113511f,0.14692332f,0.23720448f,-0.20184201f,0.05079835f,-0.58792365f,0.66721773f,0.17210932f,-0.06899170f,-0.42061403f,-0.33721188f,-0.32624206f,-0.39144823f,0.04295498f,-0.00756404f},
{-0.31606421f,-0.42623287f,0.40056026f,-0.50636458f,-0.04473254f,0.29403001f,0.10812594f,-0.03783277f,0.69085741f,0.27994299f,0.52319956f,0.62422299f,-0.02918012f,-0.01010943f,-0.04076096f,0.01052347f,-0.48341030f,-0.14148661f,-0.10847025f,0.47929204f,-1.34821236f,0.02669376f,-0.47336861f,0.33248529f,1.59281635f,0.47471347f,0.81818980f,-0.43104017f,0.65341854f,0.39058632f,-0.02792301f,0.09398350f},
{0.12011214f,-0.81404603f,-0.22428395f,-0.63026160f,0.24722567f,-0.24134450f,0.07558046f,0.77284437f,0.16956253f,-0.15705489f,-0.47726560f,0.21084498f,-0.70251507f,0.00628373f,-0.19170481f,-0.23202385f,0.66007191f,-0.12108895f,-0.23226784f,-0.07680909f,-1.56863570f,-0.16231947f,-0.60759819f,0.17000127f,0.58893639f,0.75351983f,0.21487486f,-0.69068885f,-0.09981228f,0.28686208f,0.18219933f,-0.10832348f},
{0.27977154f,0.04408319f,0.18210638f,-0.23031288f,0.00027783f,-0.16544101f,0.27004197f,0.12121645f,-0.21655816f,-0.00132091f,0.11562501f,0.01983860f,0.26899812f,0.41639182f,0.26885998f,-0.14305966f,0.19152763f,0.38072646f,0.50605756f,-0.16414148f,0.30739614f,0.03692340f,0.15141638f,-0.05714973f,0.10029114f,0.21261708f,0.24902983f,0.30640602f,0.22698143f,0.02754623f,-0.10516763f,0.11246003f},
{-0.45970717f,-0.28203562f,-0.05735965f,0.17299201f,-0.08028220f,0.13706523f,-0.57847297f,-0.11947683f,-0.26203421f,-0.03365998f,-0.38667160f,-0.12834345f,0.38737980f,0.02291453f,0.11922876f,0.21416558f,-0.39214262f,0.09652793f,0.30325207f,-0.13230696f,-0.37808886f,-0.15828314f,-0.33828810f,-0.41551039f,0.32772166f,-0.17201181f,-0.15943323f,0.87269765f,-0.20636816f,0.26238066f,0.74382281f,0.16168225f},
{0.12980023f,0.09688455f,-0.36366466f,0.79887760f,-0.24302465f,-0.25480002f,-0.69284755f,-0.28752711f,-0.27446246f,-0.51783997f,-0.15594305f,0.19733164f,0.17451170f,0.20117436f,0.22193243f,0.29959625f,-0.48030615f,0.34426242f,-0.22929512f,-0.10683683f,-0.45960444f,-0.07127390f,-0.40662065f,-0.22748594f,0.07577451f,-0.30094194f,-0.08159688f,0.29091254f,0.19924009f,-0.09718233f,-0.68123293f,-0.08714796f},
{0.43677497f,-0.21629651f,0.00532095f,-0.00498743f,0.49998680f,0.14698654f,-0.98180217f,-0.00159610f,-0.14073977f,-0.12772916f,-0.05624920f,-0.35628712f,-0.41555333f,-0.74762380f,0.08219681f,0.06859867f,0.53415543f,1.22835064f,0.09598717f,0.35364962f,-0.01037314f,-0.13708812f,0.36826140f,0.56004333f,0.20336503f,0.22087950f,-0.11059194f,0.60799760f,0.36504459f,0.27284530f,0.37867099f,0.03245570f},
{0.71068937f,-0.14588024f,-0.43004704f,0.22359638f,0.36414328f,0.18315761f,0.22995886f,0.00974726f,-0.09743229f,0.07663553f,0.40326571f,0.12202080f,0.11243866f,0.63618869f,0.51562762f,-0.27319026f,0.02171197f,0.07245773f,-0.03927382f,0.23122619f,-0.13650250f,-0.09991854f,-0.08286135f,0.37746379f,-0.44933298f,-0.51900136f,-0.14602725f,0.46872643f,-0.29689687f,-0.47479704f,-0.15190452f,-0.19720191f},
{0.21610175f,0.22010274f,-0.06996250f,-0.06694297f,0.11480400f,0.03117764f,0.04514449f,0.26725343f,0.19797681f,-0.09929067f,-0.26233622f,0.09781798f,0.29708403f,0.27495572f,0.05610290f,-0.03961903f,0.05595375f,0.10815854f,-0.13288720f,0.17609833f,0.07190388f,0.02921349f,0.12596920f,-0.07220147f,-0.01266409f,-0.18734987f,0.10369746f,0.30962402f,-0.16600667f,-0.09434756f,-0.17387886f,0.06059122f},
{-0.28586581f,0.27530888f,0.40364972f,-0.08885612f,-0.17396279f,0.09604034f,-0.09243359f,0.15105398f,-0.23037902f,-0.10213844f,0.14798731f,-0.29299048f,-0.17268723f,-0.40660456f,-0.36087289f,0.08489016f,0.09948506f,0.12848268f,-0.13209586f,0.03656523f,0.35731485f,0.16224666f,0.40577224f,-0.59394413f,0.84832811f,-0.18669324f,-0.84838527f,-0.29178566f,-0.36300305f,-0.62368429f,-0.34726787f,0.17746736f},
{-0.32798538f,0.12868032f,-0.38070068f,0.78748488f,0.22580919f,-0.24339171f,0.21206522f,-0.05908708f,0.24128047f,0.43152428f,0.21524046f,0.52043140f,-0.52172852f,0.78356880f,-0.10005560f,0.07718812f,-0.08467700f,-0.16742530f,0.03535535f,0.37256694f,-0.30157787f,-0.25994030f,-0.04872654f,0.56614774f,-0.11610418f,-0.31040972f,0.00122743f,-0.43466288f,-0.43635991f,0.14240657f,0.09088959f,0.13361114f},
{-0.24932721f,0.12960881f,0.18625616f,0.39853734f,0.09333958f,0.26141718f,0.33877227f,0.07802179f,-0.01268017f,0.16621608f,0.28232110f,0.58988547f,0.32999438f,0.55270100f,0.00257164f,0.19346169f,-0.00249954f,0.08702273f,0.14127998f,0.25510028f,0.25405708f,0.31332162f,0.19283460f,0.24778184f,0.30981714f,-0.19387664f,-0.38422585f,-0.32615197f,0.11446482f,0.17803924f,-0.07535952f,0.13047312f},
{0.36911696f,-0.39586678f,-0.09721435f,-0.15537743f,-0.32840925f,0.09594304f,0.34584233f,-0.07654540f,-0.01817305f,0.17968510f,0.11531983f,0.71221483f,-0.03845648f,0.85615999f,0.56782103f,-0.14320599f,-0.22206812f,0.06007406f,0.01885377f,-0.19269687f,-0.17812152f,0.29142341f,0.03340172f,-0.05365954f,-0.07951508f,0.43187252f,0.13106498f,-0.20752183f,0.48987544f,0.05823677f,0.42605060f,0.16125397f},
{-0.51659662f,0.03881869f,-0.24136414f,0.32456592f,-0.08895832f,0.03837574f,0.00290344f,-0.08794952f,0.55327094f,0.61618185f,0.19628687f,-0.56073040f,0.32440871f,0.02293098f,-0.05346707f,-0.11960836f,0.10208416f,-1.29541838f,-0.38658002f,-0.14470567f,-0.25125024f,-0.17895240f,-0.97022682f,0.31747919f,-0.39549077f,-0.56583524f,0.11166967f,0.09277999f,0.01337673f,-0.25362176f,-0.02092601f,-0.29860255f},
{-0.27785259f,-0.11428502f,0.17834312f,0.27294856f,-0.55690032f,-0.27660379f,0.86246592f,0.18087210f,0.36207670f,0.32214808f,0.36579239f,0.34773985f,0.40459260f,-0.00750442f,-0.24356551f,-0.18714209f,-0.00108316f,0.24224538f,-0.00036435f,0.10701364f,-0.19044574f,0.01166287f,-0.67138982f,0.15326297f,0.58620173f,-0.21087115f,-0.09116329f,0.04722055f,0.13473931f,-0.34696740f,-0.66543412f,0.27146059f},
{-0.02462052f,0.09407678f,0.13390373f,0.28345704f,0.07277107f,0.27549383f,0.18430290f,-0.58192927f,0.61162937f,0.54376054f,-0.41063854f,-0.55621511f,0.21339692f,-0.30546421f,-0.25227273f,0.10563862f,-0.05695909f,-0.14166825f,0.03930287f,0.64579058f,-0.11560082f,0.11078352f,-0.01808215f,-0.18350288f,-0.16301398f,-0.54501414f,0.26651874f,0.31357074f,0.01503572f,0.33752307f,-0.29481095f,-0.24155207f},
{0.04625243f,0.20328550f,0.46918765f,0.56333822f,-0.05667112f,0.00692993f,0.48023355f,0.09559011f,0.88839769f,0.86827290f,0.38706335f,0.05138974f,0.07577537f,0.18577783f,0.10846942f,-0.30485034f,0.37537342f,-0.33829683f,-0.34501815f,-0.31941742f,0.32234493f,0.19713493f,-0.10073671f,-0.28054687f,0.40833035f,-0.44380924f,0.20551479f,0.33596197f,0.21899422f,-0.31205842f,-0.05822824f,0.22812805f},
{0.34283334f,0.13804314f,0.59527248f,-0.01040910f,-0.13275249f,0.20620833f,0.83520275f,-0.26775116f,-0.04289459f,0.52120292f,-0.01441545f,0.55786693f,0.26918182f,0.20625733f,0.31513661f,0.20056078f,0.26440766f,0.10191092f,0.24920188f,0.35925561f,-0.26233536f,0.04126331f,-0.05248784f,0.52922535f,-0.12850669f,-0.30678105f,0.11311630f,0.09011248f,0.16209942f,-0.21596906f,0.05625999f,0.27504075f},
{-0.00542147f,0.15010299f,0.21953124f,0.29523253f,-0.15503176f,-0.23679388f,0.29209426f,-0.25687686f,0.22429304f,-0.05179067f,0.08097204f,-0.11357037f,0.21712074f,-0.06894778f,0.26234737f,-0.00849084f,-0.29947418f,-0.16831641f,-0.09988777f,-0.25532180f,0.05495316f,-0.21300709f,0.12562671f,0.25337991f,-0.25219876f,0.19144899f,-0.02206933f,0.05231097f,0.02712988f,-0.01294903f,0.02550345f,-0.10821290f}};
const float TGruHarNet::GruCellGatesBias[32] PROGMEM = 
{1.12973261f,1.09612298f,1.28616428f,1.07116055f,1.11269319f,0.99855191f,0.60312396f,1.04744911f,0.97699779f,0.95684016f,0.92163712f,1.06945753f,0.92012310f,0.81542641f,1.10718787f,0.99993312f,1.12490106f,0.79338276f,1.17642915f,0.75809693f,1.23551154f,1.02357578f,1.11356795f,1.10680413f,0.96261632f,1.07018948f,0.95299178f,0.95386744f,1.15444815f,0.94584370f,1.20008731f,1.00028312f};
const float TGruHarNet::GruCellCandidateKernel[32][16] PROGMEM = 
{{0.52159286f,0.81161124f,1.04107356f,-0.21931437f,0.86138463f,-0.31071180f,0.68174732f,0.65587509f,0.23242506f,0.28661904f,0.48645607f,0.13455644f,-0.29648343f,0.93364412f,0.41240817f,0.21845798f},
{0.69070178f,0.36380291f,-0.50589579f,0.05515922f,-0.31620836f,-0.44773522f,0.00499930f,-0.33976176f,-0.44226265f,0.02101190f,-0.00544737f,-0.41828194f,-0.36086076f,-0.33604893f,0.19117504f,-0.34357482f},
{-0.10754513f,0.73879224f,0.54076266f,0.09258687f,1.15304828f,-0.30963546f,0.61232013f,0.70190597f,0.55641383f,0.30260658f,0.53815013f,0.40735307f,0.30047199f,0.96707326f,0.58936757f,-0.13491479f},
{0.70472378f,-0.67295009f,0.07574964f,0.37122104f,0.19487388f,0.28322592f,-0.87323225f,-0.47612324f,0.31714576f,0.41213959f,0.34201750f,-0.04323383f,-0.01413576f,0.51164740f,0.27722341f,0.28590801f},
{-0.24131519f,-0.20471050f,0.12661338f,0.34360430f,-0.13325423f,0.06150376f,0.12555385f,0.08289107f,-0.30217144f,-0.31172156f,-0.31890917f,-0.19837396f,-0.31420967f,0.09011197f,0.20063791f,-0.01225099f},
{0.26937047f,-0.73996359f,-0.60578007f,0.13792436f,-0.24398394f,-0.26371437f,-0.80253536f,-0.16326240f,-0.36378786f,-0.01593611f,-0.74466586f,-0.36914831f,-0.27606463f,-0.01746695f,-0.08458539f,-0.18592831f},
{0.65302473f,0.10129811f,0.43570989f,-0.63742065f,0.43352684f,-0.11486149f,0.07547171f,0.39585114f,0.38752422f,0.86460686f,0.33928013f,0.56838644f,-0.00208205f,1.17833614f,0.37708807f,-0.25860837f},
{0.34753048f,-0.26551607f,-0.09901303f,-0.90814364f,-0.16933200f,0.18092312f,0.35990748f,-0.08791318f,-0.93589270f,-0.57800353f,0.10160320f,0.07271107f,-0.04681427f,0.56164670f,0.22196217f,0.09292291f},
{0.16972281f,0.66364813f,0.69190246f,-0.79286402f,0.98310667f,0.02815565f,-0.54484558f,0.00809569f,-0.30309939f,-0.41715539f,-0.13944247f,-1.42565322f,-0.08432891f,-1.35630262f,0.11257558f,-0.09943587f},
{1.17678988f,-0.01768399f,0.07411695f,0.55153280f,0.15143633f,-0.10305534f,-0.47064352f,-1.53091764f,-0.54731637f,0.23801591f,0.38519397f,0.14147432f,-0.50329173f,0.48939812f,0.01682058f,-0.05889046f},
{0.59331292f,0.53122497f,1.14636171f,0.02640681f,0.24562070f,-0.31513068f,-0.58200562f,-0.28651962f,-0.66197246f,-0.86874998f,-0.27400783f,-0.91064054f,-0.16135468f,-1.20824432f,-0.19102447f,0.05257724f},
{0.60957897f,0.10037304f,0.04660479f,-0.38424787f,-0.46801689f,-0.21922848f,0.38055715f,-0.33605129f,-0.41578674f,-0.03792879f,-0.26707181f,-0.15221827f,0.28168458f,-0.05052842f,-0.16165680f,-0.10368451f},
{0.41673824f,1.03400040f,0.86861968f,-1.89856660f,-0.01900570f,0.32285443f,-1.08668733f,0.41492882f,0.78847975f,-0.20798886f,-0.01531575f,-0.96121889f,-0.18832830f,-0.77477825f,-0.33186206f,0.19693212f},
{0.36238107f,0.43104726f,0.00523572f,-0.40742975f,-0.22248270f,-0.25949442f,0.30634350f,-0.40635613f,0.07451059f,-0.39262605f,-0.45028234f,0.26401129f,-0.12405060f,0.03700333f,-0.30934808f,-0.33607313f},
{0.29977319f,-0.18002050f,0.01854982f,-0.19688082f,-0.26716211f,-0.38631356f,0.26329756f,0.17570326f,-0.36659375f,-0.15097232f,-0.42693824f,-0.25611043f,-0.31380671f,-0.32042223f,-0.11684537f,0.11334540f},
{0.16097730f,-0.52355325f,-0.78236616f,-0.02210860f,-0.36754620f,-0.29560819f,0.31594539f,-0.14682171f,-0.23764454f,-0.56805599f,0.21468408f,0.25841773f,-0.28616461f,0.53377599f,-0.50633377f,-0.01688710f},
{0.33774382f,-0.21481964f,0.21571027f,0.05366467f,0.29550070f,0.00884126f,-0.20651904f,0.15418845f,0.13869511f,0.42272991f,0.00347734f,0.14156882f,0.04241605f,-0.08805858f,0.28924283f,-0.23176973f},
{-0.19656961f,0.47376987f,0.06571671f,-0.13050564f,-0.13395126f,-0.21596855f,-0.18800391f,0.29578623f,0.14135006f,0.20441057f,-0.16788565f,-0.87009645f,0.49943006f,-0.47157681f,-0.45149893f,-0.30704957f},
{0.61076999f,0.29602471f,0.14306277f,-0.49983945f,0.50044888f,-0.27122006f,-0.17724958f,-0.01784297f,-0.01532084f,0.05842258f,0.30202481f,-0.41814339f,-0.36035943f,-0.30343106f,0.16683879f,-0.07571991f},
{-0.40212330f,0.14705037f,-0.24283440f,0.49775946f,0.12688810f,0.07955840f,0.29456979f,-0.58525902f,-0.60020763f,-0.02834444f,0.27546918f,-0.20153800f,-0.16135548f,0.41028619f,-0.07096947f,-0.26046005f},
{0.16124661f,-0.10983197f,0.23408699f,0.13103390f,-0.15499549f,0.17725508f,0.26344618f,-0.25989324f,0.20578946f,0.63461608f,0.30969417f,-0.03789552f,0.24852006f,0.07278672f,0.68429559f,0.01267748f},
{-0.17512695f,0.31340620f,-0.30140781f,-0.02583328f,-0.17418663f,-0.08319818f,0.20817915f,-0.08550794f,-0.00300732f,-0.14067675f,0.21552747f,-0.14708583f,-0.15714973f,0.02103451f,0.22239845f,0.28956780f},
{-0.43766794f,0.21284500f,0.45802200f,-0.33461326f,-0.25880164f,0.11341222f,0.45345575f,0.13691401f,-0.23916322f,-0.62118727f,0.26375851f,0.63089949f,0.14694326f,1.05510044f,-0.57783759f,-0.18394829f},
{-0.16620597f,0.15453476f,-0.17345618f,0.22817545f,-0.24957572f,0.08509019f,-0.42702839f,0.05566647f,-0.08078843f,-0.02917352f,0.05701781f,0.25449428f,-0.18021661f,0.23778789f,-0.57531923f,0.04022558f},
{0.43979740f,0.26672763f,0.24643344f,-0.04056470f,0.17532325f,-0.34316885f,-0.13525476f,0.70308572f,0.21419854f,0.37297073f,0.09059174f,0.53887057f,-0.60892075f,0.17598142f,0.08061692f,0.00493513f},
{0.10334672f,0.11305267f,0.06316121f,0.46477619f,0.38741007f,-0.33996651f,0.24401686f,0.10989000f,0.10399501f,-0.08340069f,0.10965154f,0.27547261f,-0.60843933f,-0.27914092f,0.52073705f,-0.02580945f},
{0.44214103f,0.17082630f,-0.04781775f,-0.19959065f,0.10813651f,0.01342714f,0.10141015f,0.30937761f,0.64878201f,-0.12159681f,0.41070026f,0.49339601f,0.13629080f,0.01630509f,0.26113027f,-0.03597419f},
{0.08058947f,0.16613775f,-0.28276357f,0.02922025f,-0.10078429f,-0.10394472f,-0.27291813f,0.04093610f,0.35755193f,0.22905558f,-0.09378738f,0.53737652f,-0.02629416f,0.48480698f,1.04480791f,-0.03231296f},
{0.28020701f,0.07521024f,0.22401531f,-0.11231879f,-0.03967352f,-0.00374306f,0.00860642f,0.15999249f,0.18996659f,0.23544711f,-0.66311419f,-0.25302470f,0.47711724f,0.10083526f,0.31742552f,0.21238461f},
{-0.11250265f,0.05689596f,-0.27817377f,0.24373227f,-0.28669894f,0.00701462f,0.32155651f,-0.30036408f,-0.04798610f,-0.36801380f,0.36578026f,0.62229854f,0.39561301f,0.14735866f,0.12222480f,0.07247119f},
{0.36335436f,-0.33684790f,0.24404943f,-0.10251856f,0.04677730f,0.03841902f,0.18543872f,-0.12309465f,0.36832702f,-0.20789671f,-0.24872936f,-0.19561717f,0.18841960f,0.20285887f,0.04025801f,0.04107490f},
{0.33874494f,0.19022585f,-0.20737527f,0.03730240f,0.04138845f,0.15126476f,0.13525435f,-0.26067707f,-0.11934612f,0.29198253f,0.26713586f,-0.34299788f,0.16637035f,-0.15171605f,0.07007746f,0.27621290f}};
const float TGruHarNet::GruCellCandidateBias[16] PROGMEM = 
{0.32200962f,0.06527281f,-0.16086005f,0.10611159f,-0.03915032f,-0.12098986f,0.24808420f,0.08719599f,-0.12317070f,0.20591375f,0.03839067f,-0.21618925f,-0.08247612f,-0.23411250f,-0.10869768f,-0.00526732f};
const float TGruHarNet::OutputDenseKernel[16][12] PROGMEM = 
{{-0.37892970f,-0.34182325f,-0.27994353f,-0.31466237f,0.18987906f,-0.10789200f,-0.15041094f,0.05193447f,-0.21501569f,0.20742279f,0.24549803f,-0.24281289f},
{-0.06944383f,-0.48043671f,0.57666421f,0.05187146f,1.20304358f,-0.69340974f,-0.61270076f,0.23347896f,0.33918810f,-0.46568477f,0.40777218f,0.00964356f},
{-0.29763651f,-0.04743799f,0.19569978f,0.12092365f,-0.08999398f,0.06401623f,0.46907619f,-0.02633468f,-0.01487056f,0.63771856f,-0.03283273f,-0.20695953f},
{0.34169999f,-0.28081667f,0.38185143f,-0.03459952f,0.35355347f,0.25358644f,-0.22172219f,0.82626122f,0.54871988f,-0.88486600f,0.25053322f,-0.24310680f},
{0.01092685f,-0.29225770f,0.32479420f,0.40956464f,0.31680232f,-0.03124263f,-0.05524216f,-0.35854083f,0.33780468f,0.42099804f,-0.38697529f,-0.41655549f},
{-0.15333761f,0.33973387f,0.13196303f,-0.36665434f,-0.18578088f,-0.09928410f,-0.16527553f,-0.31082818f,-0.38906044f,0.26416442f,-0.32281268f,-0.25995892f},
{0.20207599f,0.11043297f,-0.22763106f,0.10776456f,0.10776879f,0.41153875f,-0.25750646f,0.18894649f,-0.46431774f,0.27914819f,0.09574558f,0.02473088f},
{0.39902976f,0.43052551f,-0.03650160f,0.36825886f,0.53966057f,-0.47608408f,-0.41025388f,0.05661990f,0.47026476f,0.13882090f,-0.12533732f,0.14010364f},
{-0.40781081f,0.03349505f,0.32235596f,-0.13088660f,0.67971671f,0.07197461f,-0.19955923f,-0.40216050f,0.29455632f,-0.39943433f,0.09863585f,0.17090465f},
{0.05496005f,-0.24538732f,0.03593220f,0.01759700f,-0.18407580f,-0.31499949f,-0.15041634f,0.19032028f,-0.25285655f,-0.23794526f,0.30725363f,-0.14937340f},
{0.03594770f,-0.12352960f,0.29348433f,0.00748750f,0.23124455f,-0.09367097f,-0.20945607f,0.32927316f,0.35405883f,-0.24928226f,-0.05673471f,0.48109552f},
{-0.23416692f,0.59620434f,0.12786898f,-0.01934185f,0.01625619f,-0.17833430f,-0.12744382f,0.20144702f,0.20806566f,-0.39293271f,0.26306963f,0.39968956f},
{-0.29427239f,0.33496821f,0.14933091f,0.25866887f,-0.29269600f,0.03369589f,0.62817556f,-0.27365178f,-0.26507041f,-0.37925166f,-0.11832300f,0.27045959f},
{0.40898812f,0.61494774f,0.04583522f,0.39004815f,0.39835811f,-0.18959841f,-0.05755391f,-0.27655852f,0.12412954f,0.22535397f,0.03430510f,0.17915329f},
{-0.34025803f,0.16425927f,0.29089811f,-0.31468844f,-0.27907890f,0.20316136f,0.33072093f,0.04795888f,-0.33648676f,-0.08042367f,0.15149833f,-0.12385087f},
{-0.18584247f,0.24016525f,-0.18719806f,-0.25364214f,0.28270137f,-0.26963681f,-0.12792258f,-0.42636675f,0.37258306f,-0.05729706f,0.45428351f,-0.03665978f}};
const float TGruHarNet::OutputDenseBias[12] PROGMEM = 
{0.11106659f,-0.26583201f,-0.31078589f,0.04926753f,-0.34329927f,0.02494105f,0.06796921f,-0.07387689f,-0.12080705f,0.00748511f,-0.06887051f,0.00615077f};
const float TGruHarNet::ToClassesDenseKernel[12][6] PROGMEM = 
{{-0.02767577f,-0.58533674f,0.32949367f,-0.16640888f,0.44421136f,0.09315827f},
{0.84056103f,0.34948438f,-0.05611320f,-0.45687774f,-0.37600660f,-0.50899345f},
{0.15713485f,0.46582022f,0.53300744f,-0.52028108f,-0.14237592f,-0.40573737f},
{-0.33458063f,-0.10216135f,-0.08908079f,-0.49421751f,-0.15485270f,-0.57422352f},
{0.07045370f,0.21047527f,0.29239064f,-0.29466924f,-0.89396018f,-0.60823214f},
{0.12977995f,-0.30313468f,-0.44866884f,-0.41186938f,-0.29110456f,0.44432059f},
{-0.11009482f,-0.12478017f,-0.45377493f,0.26873443f,-0.10285737f,-0.48761016f},
{-0.18670592f,-0.41859165f,0.32204205f,0.57505774f,0.16387276f,-0.07627860f},
{-0.36250389f,0.07146760f,0.65856415f,-0.40411967f,-0.73957086f,0.32005861f},
{-0.07160724f,0.46516681f,0.04453439f,-0.04481888f,0.37394559f,0.33496958f},
{0.25871325f,-0.41201773f,0.25015414f,-0.34483317f,0.07790581f,0.35066342f},
{0.30792168f,0.41004458f,-0.31745049f,-0.04169549f,-0.25590801f,-0.37204835f}};
const float TGruHarNet::ToClassesDenseBias[6] PROGMEM = 
{-0.10178723f,-0.08366961f,-0.19335547f,0.06715481f,0.21722215f,0.15276831f};
